{
    "layer_0": {
        "type": "hidden",
        "bias": [
            [
                -0.6828248712323672,
                -0.6156293940338529,
                0.038081163414238846,
                -0.8843324098315236,
                -1.4673612695728748,
                0.13062475087835432,
                -0.3296227814825019,
                -1.1940234718815466,
                1.2607131426739089,
                0.4049818798550427,
                -0.3655899166895378,
                -1.0348307741527496,
                -0.20233845603291695,
                1.118244640142563,
                1.1009254360201932,
                -1.4887432667270115,
                -0.41912226177845524,
                0.00149967932800522,
                0.6841660764535704,
                2.1014268661220217,
                -0.43564080825984985,
                -1.2159741295814293,
                -1.3606533034465726,
                1.1140459228123445,
                -0.10336098743421832,
                0.4900143556807872,
                -1.0625782694680619,
                -1.4905284936323744,
                -1.8955718787796858,
                -0.3097622829129014,
                -0.5519525211611437,
                1.16038751763085,
                0.4520785820222513,
                1.564383670367092,
                -0.8423227212368952,
                -0.3247767571929496,
                -0.1858930075609325,
                1.6981566386392315,
                -0.40669266709345786,
                -0.502229155395076,
                -0.45560140445756525,
                0.05387080889926335,
                2.13594222738341,
                -0.08454180070371912,
                0.9909995115795539,
                0.943434821218622,
                -0.07208785370763365,
                0.08847590753525303,
                1.1983417529551823,
                -0.0008867548873278345
            ]
        ],
        "weights": [
            [
                0.4104944019928145,
                0.08722028528452441,
                0.0595105961834248,
                0.48539974642011396,
                -0.316117321944422,
                -0.027161316062031537,
                0.19815918414733869,
                0.09659148293893305,
                -0.2528985196847783,
                -0.34422685008382736,
                0.13749748243863602,
                -0.10490769989249149,
                -0.3675831386773917,
                0.3912632684864944,
                -0.202321641523742,
                0.46597919067008564,
                -0.23767604141036391,
                0.08379974755376018,
                0.3944717699603333,
                -0.39059431396261945,
                0.1903357211555784,
                -0.2782896068218187,
                0.15023366377324143,
                -0.06152192426312619,
                -0.09104099155445133,
                0.10315964446494896,
                -0.23909536280857868,
                -0.3581352002447922,
                0.21635876844839186,
                0.1700265044078908,
                0.29527363575429977,
                -0.12145407428756727,
                -0.48677675396672504,
                0.16660640288715978,
                0.41426187005808957,
                -0.20262027421073725,
                0.06412775630221268,
                -0.36204490884719065,
                0.29173734973093535,
                -0.31397827787256916,
                0.4703613647104844,
                -0.23663857738594163,
                0.20380062556999867,
                0.16980431449522926,
                0.4764483177176825,
                -0.4069680860311855,
                0.34772349480300513,
                0.36411873310519893,
                0.3278881302308434,
                0.2555371558214604
            ],
            [
                -0.06932002888171396,
                0.3833848395670064,
                0.19041998331199383,
                0.13999269675905235,
                -0.35000641050760406,
                -0.027748543162144146,
                -0.43114896335919217,
                -0.16662700965920219,
                0.28100083789579955,
                0.41218036688920945,
                -0.48726874229221984,
                -0.20318543009483347,
                0.08406819401694232,
                -0.2836392655553853,
                0.20036148336483417,
                0.4969378242832144,
                -0.31689222887137236,
                -0.1155089320543713,
                -0.08626994367345242,
                -0.03420858264464133,
                0.2381158564329049,
                0.020680795233904314,
                -0.043410497649518764,
                0.03533276088619686,
                0.4224127513781021,
                -0.0607855594744654,
                0.47131437793906195,
                0.33984106623178256,
                -0.43389775360202043,
                0.3934009712312415,
                0.2995584948592789,
                -0.27019524973337594,
                -0.2655452047949346,
                0.160450455160565,
                0.16554914828905287,
                0.4403424689565746,
                -0.00027986029400195456,
                -0.30936864910213446,
                -0.07615429856916656,
                0.45964934348434205,
                0.23940800457432854,
                -0.06538965877410252,
                -0.13697223097810163,
                0.47249063894344634,
                0.12920090931006234,
                -0.4960217727571815,
                0.05451282817887859,
                0.47703886727727396,
                -0.09366682870871379,
                -0.4615379067632587
            ],
            [
                -0.13170882814109075,
                0.37087323029737185,
                0.2500666422168799,
                0.05024479715423347,
                -0.48451491975223937,
                -0.317148200551273,
                -0.35120713387178326,
                0.33600940372762567,
                -0.44946780401735564,
                -0.03751941110622303,
                -0.46624166573564485,
                -0.06833096541910888,
                0.2588168189536063,
                0.19987608544381374,
                0.24079068115561297,
                0.18609936611513145,
                -0.07026809156659442,
                -0.4318130819155319,
                0.24365429597076715,
                -0.18702988598133352,
                -0.3977600139478147,
                0.08740715045016134,
                -0.3394540725809354,
                0.022532318169598886,
                0.014430432892547862,
                0.13677010997381378,
                0.2759066368648988,
                -0.46829502746332163,
                -0.40324916553360357,
                0.09899940952459152,
                0.11992416507286763,
                0.17399929765137145,
                0.41021336571796674,
                -0.4902800369115332,
                -0.12303932450965527,
                -0.2692357661414224,
                0.1009730433739554,
                0.22839281428207248,
                -0.42685086925256377,
                0.1024492511584787,
                -0.05572766949710006,
                0.005451683606656155,
                -0.29754583203091967,
                0.4972458057717245,
                0.019537485970028134,
                0.10044542839599324,
                -0.3013883392637583,
                0.12184387230565308,
                0.37566933884496645,
                0.0939550880080664
            ],
            [
                -0.3690996605645467,
                -0.299204909795429,
                0.4237595193769217,
                -0.3790177364328535,
                0.011154296398169894,
                0.2990158268869869,
                -0.06533598771098315,
                0.2627797636399335,
                -0.1300757854829505,
                0.14991059611118396,
                -0.07588377142238212,
                0.49045877807230087,
                0.21701634737675568,
                -0.424098697320324,
                -0.22305114833541473,
                0.18932995015246323,
                -0.15606497653241858,
                0.4543164214171539,
                -0.2863220609814259,
                -0.1963327458216675,
                -0.11480367687351423,
                0.4080394302194932,
                0.4346277102815803,
                -0.22445965348920038,
                -0.3574487638822845,
                -0.00440972015065999,
                0.14603451614987129,
                -0.4777815944663878,
                -0.1497971815944903,
                0.02596056756087861,
                0.12530706806323944,
                0.2923043376132145,
                -0.2627513866310054,
                -0.3781450087131467,
                -0.2980643016473695,
                -0.4279578441235946,
                0.050190364907411245,
                0.14505860969515394,
                0.3435651982831991,
                0.06406548570973791,
                0.2502879390762279,
                -0.0829806113375462,
                0.4319883288827264,
                -0.3610822947682306,
                -0.04579960582434872,
                0.12345977909094263,
                -0.4555231625754804,
                -0.41742078983227804,
                0.42612561904030777,
                0.39162457350579694
            ],
            [
                0.09211474210864212,
                -0.3736264639222998,
                -0.22813121880823561,
                0.12243018492855684,
                0.4145886393440442,
                0.31505841800333245,
                0.2956444680551299,
                -0.0058228350481488445,
                -0.16434346472127193,
                0.3570121097833986,
                0.11147187840363504,
                -0.42622916349612916,
                0.19890617950905032,
                -0.13524076809848518,
                0.07376868842874462,
                -0.3862895256435236,
                -0.07743417857739243,
                0.36946948105387367,
                0.1573811851318765,
                0.060900902483363994,
                -0.3379878170936471,
                -0.38285484597336883,
                -0.28667412004384796,
                -0.19625757950344924,
                -0.35935297677824185,
                0.02958788947199753,
                0.010115308515465271,
                0.013168958653746121,
                -0.026998187177751154,
                -0.34539912280209006,
                -0.1536357412735453,
                0.18983344939172608,
                0.14424257281720276,
                0.11754366326277377,
                0.48782920595472246,
                0.35976546011358224,
                -0.4436168473617368,
                -0.20030094454714642,
                0.244343850747324,
                -0.0031416603170441038,
                -0.17053510139026906,
                0.22237287775531933,
                0.2025696526914892,
                0.2085755431484997,
                0.07562448674279676,
                -0.07969370805872833,
                0.11661653964277119,
                -0.348860863305158,
                0.2579027393844421,
                0.10426080461383236
            ],
            [
                -0.4757946739403751,
                0.3927899681782271,
                -0.11030068759320577,
                0.11092849877229694,
                0.1955388455817768,
                0.12716233698730073,
                -0.31032103066555405,
                -0.2320463550185643,
                -0.3820561843039023,
                -0.2172884011648426,
                -0.3658077336856248,
                -0.39658165855879446,
                -0.335940762740797,
                0.2143608270766324,
                -0.4470824779135877,
                0.4338546242413964,
                0.4285770093706325,
                0.18854930572259243,
                -0.11139448504723615,
                0.08511516380341755,
                0.2455176504365163,
                0.44413931940188334,
                0.013290669619589579,
                0.3045484803657874,
                0.14669062283997958,
                -0.18263392830773617,
                0.47514246909276225,
                -0.2737691806145306,
                -0.0073004168295299765,
                -0.37501045366626884,
                0.08262589645038165,
                -0.3001700267873748,
                0.12192100065277289,
                -0.33143517112223997,
                0.292919017185471,
                -0.2273268473988248,
                0.46425723861575563,
                0.04088915533924686,
                -0.12665223263106073,
                -0.4029113896796549,
                -0.18191706735278312,
                -0.4644595217156192,
                0.0020400538248946942,
                0.17975874053339136,
                0.2553318968046905,
                0.21424534729267408,
                0.38026974812958203,
                0.38978280040408964,
                0.08398339274905675,
                -0.05086535744955001
            ],
            [
                0.07908305277372285,
                0.2348615322874258,
                -0.4272280321056575,
                -0.3511229185769662,
                -0.40610559687740655,
                0.1340932148815932,
                -0.3848026292171213,
                0.25237147844802266,
                0.10748008034265533,
                -0.1841094253935841,
                0.3117445649315054,
                -0.19229504251062512,
                0.06255709168813817,
                -0.08410631603631902,
                -0.015895054810219023,
                0.02679619457254434,
                -0.07855112934143149,
                0.21883825198819296,
                -0.004097751177677855,
                0.4818165181743693,
                -0.12850611812543689,
                0.3838763856315419,
                -0.4754647887387984,
                0.08792770012117979,
                0.1810937921055955,
                0.18975175559425894,
                -0.461865292198231,
                0.32215126357298884,
                -0.47805592195001023,
                -0.32535954292532354,
                -0.16593780115510615,
                0.4615503577692198,
                0.1994445893938629,
                0.1425947039869958,
                -0.4381094061819172,
                -0.36703311862889354,
                -0.29019841581371186,
                0.3202136095130017,
                -0.06771741993281433,
                -0.4206159519764595,
                -0.05773681196888414,
                0.150713501477579,
                0.18042194267254996,
                0.485778128578363,
                0.40334869172490606,
                -0.4373531504328798,
                0.06635015013750256,
                -0.046029545512890846,
                -0.4888320376090842,
                -0.0036775324057842784
            ],
            [
                -0.31406234789894205,
                -0.49145690424367117,
                0.0707399141930839,
                0.09768939813554833,
                0.006773190277722496,
                -0.4951512138344585,
                0.2947576912025893,
                -0.24204208417813122,
                0.2620629531104528,
                0.46264186452004896,
                0.15581823653002624,
                -0.03220842373593136,
                0.061958346426764455,
                0.34259782430166064,
                0.4012974930178417,
                0.036687696893843436,
                -0.4671227857264122,
                -0.22947600737393414,
                -0.19635685358796184,
                0.13547382700460997,
                0.07443447114617363,
                -0.3782044324720991,
                -0.08594599107162504,
                -0.22432551473062612,
                0.02667867819566272,
                -0.18866034645473773,
                0.08700076151863467,
                0.16424305636446546,
                0.1373574068542881,
                0.4655244768041692,
                0.4763439998711324,
                -0.3984476333038023,
                -0.3406543958426763,
                -0.451825746303397,
                0.2582838096371608,
                0.4783261350041029,
                -0.15247813781210906,
                0.4563950017569549,
                0.2653637518489268,
                -0.0022976925420792327,
                0.4083194816857171,
                -0.009134075270288533,
                0.02121323428945243,
                -0.08992739798018001,
                0.3026767990463447,
                -0.158042055590483,
                0.07812463211428433,
                -0.03671343639997182,
                0.25031001624075433,
                -0.20569372759435745
            ],
            [
                0.46968208143029055,
                -0.2914687553893166,
                -0.36617276114617425,
                0.3033481947380118,
                -0.025268342940872768,
                -0.3700396266509044,
                -0.3231773516801525,
                0.3728373041317635,
                0.40602649839950056,
                -0.12568216326695958,
                0.3681906529888823,
                -0.2546389837637587,
                -0.09777933733062172,
                0.4747763077243823,
                0.25636134236864194,
                0.42926892365274305,
                -0.08233790996746349,
                0.25890218969286094,
                0.4042072970427334,
                -0.15260243731501855,
                -0.41156929008442644,
                -0.4384254059804281,
                0.1918130046148404,
                0.07393853716487475,
                -0.17979407716796636,
                0.034856625616910275,
                -0.054924671943027525,
                0.058084202936938945,
                -0.1878967318785415,
                0.07429840186040426,
                -0.23585434892664447,
                0.22477849912187509,
                0.35266355141039984,
                -0.04690613195027804,
                -0.06717693480757514,
                0.039868559000503234,
                0.4797790679621917,
                -0.3325535058000967,
                -0.47460995264157724,
                -0.4271238068639809,
                -0.458229631300779,
                -0.4230485254364894,
                0.14235044351567572,
                -0.28646244356991823,
                0.22430723695347288,
                -0.4524052456186045,
                0.06819706704700523,
                -0.4754205519123563,
                -0.14188760046756776,
                -0.4553043419190027
            ],
            [
                -0.019910153965936428,
                -0.3932828058026625,
                -0.21346852692815765,
                0.04303918733485124,
                -0.19166027898639337,
                -0.09804614243847742,
                0.36591463693270276,
                -0.10056034205159603,
                -0.4310976675478012,
                0.08812410225732403,
                -0.3571528379749098,
                0.07947294782831082,
                -0.1792081450921269,
                -0.4773469548837159,
                -0.11256572544794197,
                -0.012716564232589489,
                0.3998901703395079,
                0.15556800414862337,
                -0.25995774025964224,
                -0.47385437643832296,
                0.1732446343849796,
                0.05853456259127465,
                0.12316402431286722,
                -0.23040670222678472,
                0.48279303099696824,
                0.4535854301045874,
                0.44465741244982715,
                -0.11790526851852923,
                -0.18399045709792483,
                0.3119240905688332,
                -0.379489424562655,
                -0.37093832605125765,
                -0.2250205692863939,
                0.35659666022883874,
                -0.08447221180380893,
                -0.3578011998402243,
                -0.17979892326946434,
                0.148122349431817,
                0.4679733831980494,
                0.3665603557206001,
                0.19600760210496293,
                -0.26434492914889185,
                -0.17094479220577896,
                -0.04482709761505688,
                0.14276942961730077,
                0.32845353860727244,
                -0.17909791837160582,
                -0.15986677837349494,
                -0.4537103509751199,
                0.08922796875913186
            ],
            [
                -0.11975565873514304,
                0.16330403561525453,
                0.4084250728206723,
                -0.38582964790225793,
                -0.33930741981708235,
                -0.13279698290630504,
                0.39908980758049717,
                0.4530061158621086,
                0.3773788769167067,
                0.14819329459355368,
                0.35853913052635866,
                -0.09333120620004298,
                -0.10411353739009632,
                0.4899880911103355,
                -0.15544776755378087,
                -0.4260668441520572,
                0.24229964415411243,
                0.04402538017143365,
                -0.19128340531668075,
                -0.27418692794724153,
                0.038136317815693155,
                -0.18189243307020064,
                -0.09324549544698901,
                -0.4238458203732064,
                -0.4134227543534261,
                -0.12407001665771844,
                -0.3003565013779026,
                0.010450938860237402,
                -0.2881691971928949,
                -0.4868728438001422,
                0.2199078968567223,
                0.2066542019428439,
                0.36869877524365124,
                -0.3693326583684833,
                0.21860150501006725,
                -0.2661795173089292,
                0.3480137090391202,
                0.4097742831250205,
                0.4148274624505762,
                -0.3648041637014239,
                -0.15208173204119868,
                0.3183235305259712,
                -0.32364831137605476,
                -0.3073915357378183,
                -0.09802249971262988,
                -0.2970177814830697,
                -0.12256483780307414,
                -0.3732936676516927,
                0.3578991092667302,
                -0.04734749160507967
            ],
            [
                0.10358868439753877,
                -0.4702510513809659,
                0.4346953700510202,
                0.10142401373449905,
                0.0892757704097149,
                0.2157532864261078,
                0.21155383087469581,
                0.05019790749351716,
                0.018269131461655208,
                -0.48379612303451647,
                -0.33346113583542913,
                -0.008653888546209076,
                0.3543159796991606,
                0.3589744688104145,
                -0.4719453999247343,
                -0.49691065611590335,
                -0.3911737193015996,
                0.30952420560337124,
                0.37965107819368926,
                0.048791067612593664,
                -0.10484649093301879,
                0.15227568191079988,
                -0.13843928182655318,
                0.49889184778330553,
                -0.34832827407313016,
                0.19474106045436423,
                -0.05701380731565098,
                -0.009254562771130348,
                0.09599489975244524,
                0.28095617349081803,
                -0.007109375962007558,
                -0.05178456882831273,
                0.011851467771252011,
                -0.04305432818006982,
                -0.37838364983924444,
                -0.21836443337883182,
                -0.06520816387947004,
                0.34047969134037515,
                -0.1176546275748338,
                0.09162331681035374,
                0.04490338093899726,
                0.3148974009884722,
                0.12587937244216374,
                -0.34249592046357125,
                -0.007702890709845978,
                -0.09746130863002056,
                -0.4079173779804869,
                0.15544131221949475,
                0.34630425172577584,
                -0.22484123297372793
            ],
            [
                -0.24027910436100408,
                -0.2406627283615972,
                -0.020716272767040467,
                -0.30378318787378034,
                -0.1671850086329858,
                0.0738648496344051,
                0.2752043466067373,
                0.2617980714862318,
                -0.36190891859713037,
                0.057278374363515794,
                0.24259139461039003,
                0.17736106492999038,
                -0.3494457403400997,
                -0.10389802474825649,
                -0.07195294091860416,
                0.3942620015716283,
                -0.033294376095853506,
                0.01343241712709653,
                0.36675323770548307,
                0.42228819265717954,
                -0.43998792353499294,
                0.07971233131399613,
                0.17619544355416472,
                0.25539619604600416,
                0.13327199144301083,
                -0.3492558980714966,
                0.42345536033964093,
                0.3004972651771819,
                -0.3240677564173501,
                -0.18262966638431177,
                -0.2611030684069504,
                -0.41744520545910224,
                -0.12786615521357825,
                0.3513201857656414,
                0.4553782454313744,
                -0.4104617056629851,
                -0.27532579763613907,
                0.43171725609332945,
                -0.07821449760797172,
                -0.03579161706153533,
                -0.0764287921899598,
                0.30275165846307095,
                -0.08629616323287137,
                -0.09714388842357136,
                0.015914633411550194,
                -0.002446266290016985,
                -0.013727463043594845,
                -0.3406165804541381,
                -0.1201380107161577,
                -0.4174815856102645
            ],
            [
                0.10459119098144232,
                -0.06048467604996821,
                0.1215438422768782,
                -0.12164328992071127,
                -0.3992090291064656,
                -0.30625418134079085,
                -0.20063477042735267,
                -0.4750212933511172,
                -0.3496597075880634,
                -0.19609250633322028,
                -0.23824797081904137,
                -0.42930347885351827,
                -0.22317653761498268,
                0.486423280570623,
                -0.22688301107606612,
                -0.4376726399743267,
                -0.26399815182734154,
                -0.35899316638027434,
                -0.46529882363793384,
                0.03772924537953126,
                -0.4390278617095976,
                0.2602446434708797,
                0.39680095884634803,
                0.17657475444838144,
                0.009549619210606819,
                0.06602408447185248,
                -0.15553173383392926,
                0.020114678166580746,
                0.4587504029880387,
                -0.03935423512842917,
                -0.02921876002952828,
                0.08776526102434323,
                -0.03424793644637969,
                -0.05377350104664025,
                0.23760702099824105,
                -0.44005850830590565,
                -0.10074311240577238,
                -0.1440924394595957,
                -0.2434964145700329,
                0.4178162086769265,
                -0.022426531617914636,
                -0.4531026871462698,
                -0.4370757119047002,
                0.3212927271827367,
                0.01884552694199071,
                -0.12778267857898673,
                0.24664588171941937,
                -0.020310619627150084,
                -0.25769856318747375,
                0.3918226271740515
            ],
            [
                0.41777818651449794,
                -0.25021745217627667,
                -0.29330211632521586,
                -0.4172345746983519,
                -0.35382650528736836,
                0.27436326279110923,
                -0.49286667114062654,
                -0.1630929919845785,
                0.4907465513513526,
                0.12578224433818275,
                0.2662956956438144,
                -0.1354481084188749,
                0.08628769401209702,
                0.17131329594329936,
                0.226229296660158,
                -0.4744234273306198,
                0.251369309374198,
                0.12215142918062072,
                0.16692311346822153,
                -0.40227803562002684,
                0.007668128639292893,
                0.0455400919153478,
                -0.04406309830158073,
                0.008381481028121085,
                -0.17407105375216636,
                0.38255786018274585,
                0.17238618402114458,
                0.3353369766177975,
                -0.2407200807261095,
                -0.4822660011667449,
                0.12564587209389566,
                -0.3195907836632177,
                0.12568629275507115,
                -0.09859355637392919,
                0.1353051923268792,
                -0.49128462480983337,
                -0.37113503794376546,
                0.023067196936175094,
                -0.14548665411146755,
                -0.3447113876343886,
                0.18318785848100605,
                0.32024759057427654,
                0.12897596032907255,
                -0.334786348006861,
                0.3023818074835948,
                -0.3155413909248592,
                -0.015108952176685286,
                -0.4873492832348775,
                0.3221791752167603,
                0.19023680729091197
            ],
            [
                0.28327343968960417,
                -0.4970076339858135,
                -0.4087461834705701,
                0.1389875150519012,
                -0.4206494126017185,
                0.024510527370637858,
                0.3501836166152815,
                -0.13390721443686004,
                -0.2320178661869583,
                -0.3193215651462792,
                -0.3729282112621919,
                -0.41407265483636047,
                0.13776932041848544,
                0.43472782055204506,
                -0.23195608451530636,
                0.0217838674761085,
                -0.4024346991217975,
                0.25146674140212655,
                0.3851932381123423,
                -0.14559299238757373,
                -0.3947211915139561,
                0.3367030129923382,
                0.031205268183920776,
                -0.4726457419410174,
                0.14679910468956836,
                -0.2263022594015064,
                -0.11999942403194686,
                0.42733807428287407,
                0.3929385051797534,
                0.2283514597860714,
                -0.1853683118821584,
                -0.18320214854982975,
                0.354754023333235,
                -0.38502134635906604,
                0.4322455240970724,
                -0.37357853707059185,
                0.03707310850807599,
                -0.15988069039043573,
                0.24354316584754376,
                -0.34248958218084236,
                0.08907468372526128,
                -0.34447209570618265,
                -0.006405686412828349,
                -0.3535869040468218,
                0.03024235719962054,
                0.2114903139133527,
                0.39895106214401965,
                -0.35668812623866886,
                -0.1881304339968547,
                0.2968237739988332
            ],
            [
                0.3351206767001579,
                0.06577286698647855,
                -0.38327442221853736,
                0.27909389396275075,
                -0.17406939625413553,
                -0.3933655945417841,
                0.4674006538339236,
                -0.12000941467247161,
                -0.48988522225757103,
                -0.38986061092673663,
                0.36842594257456573,
                -0.3929502818483741,
                -0.19161375928022462,
                0.3731769481590095,
                0.4491199731518386,
                -0.22518134972389559,
                -0.3548916894559463,
                0.18022541812718362,
                -0.33764786386974355,
                0.1927838047811592,
                -0.24113071853846357,
                -0.2726813244029441,
                -0.1792618611156176,
                0.2663752681347581,
                0.1182495525356193,
                0.4771865970373105,
                0.0007341925228975255,
                -0.26906914738819077,
                0.2602569133022391,
                0.3689103349762639,
                -0.4329368224942963,
                0.38794754606479775,
                -0.32875569243521563,
                -0.011009744908284658,
                -0.4226733109938543,
                -0.03739056201644997,
                -0.45978837837217856,
                0.20920979970015763,
                0.1574455449762563,
                -0.4116484828994261,
                0.009295603836356636,
                0.3290500057697967,
                0.16884764424297904,
                0.03851872667479583,
                0.033230746218258056,
                0.1855157642205948,
                -0.3423469303782358,
                -0.1369869638315766,
                -0.0031255560354821466,
                0.45468274853807955
            ],
            [
                -0.1101527789654696,
                -0.32521027921114876,
                -0.3195643740355978,
                0.42398966104481084,
                0.08559860660416152,
                -0.25407817050318626,
                -0.22277100105329384,
                0.4233113089163071,
                0.07383844095070802,
                -0.1991477867851159,
                0.06264996842510917,
                -0.31849515913591164,
                0.316293508378065,
                0.3536706014719887,
                0.005551202881784345,
                -0.29756037316580475,
                -0.18108187500895778,
                -0.05589331962458355,
                -0.030023714118817768,
                0.09545416747220425,
                0.10015730072718232,
                0.45445730060456513,
                0.42331267729247424,
                -0.4950010402240709,
                -0.02073012790748674,
                0.06904721355670895,
                -0.16853643993053313,
                -0.39469704206343037,
                0.12360533491408487,
                0.3506934588229623,
                0.09377994351765817,
                -0.22617664507387014,
                -0.2694862903636174,
                -0.08121670469318654,
                -0.18770652598925808,
                -0.08758498716555996,
                0.150536225612791,
                0.07054606554073695,
                0.2307554059250272,
                0.057866547143444524,
                -0.07343334825816561,
                -0.4031285502002345,
                0.03453955225396299,
                0.2808868390910534,
                0.3804307802115613,
                -0.21473369650290441,
                -0.3453393989954606,
                0.08670537070080098,
                0.08535899324672402,
                0.3903286147535435
            ],
            [
                -0.43425068418674717,
                0.24596003903911778,
                -0.48706715940642453,
                -0.33293640485839604,
                -0.42601684170868737,
                -0.023344499107104455,
                0.23315122853401826,
                -0.4341331497230623,
                -0.25081839453411636,
                -0.003074700102463801,
                0.2773203585777738,
                0.1910626709855585,
                0.30795355977434324,
                0.4549279008882293,
                -0.47850310461153756,
                -0.14172659496834894,
                0.15611116784531642,
                -0.3933714976010839,
                0.2114293204882728,
                0.26813787937567135,
                0.18705163324066698,
                -0.34122463123953795,
                -0.4872378211478525,
                0.07562354465623033,
                0.2540877220279285,
                0.34318332711806665,
                -0.19026952527578145,
                0.12549332344935793,
                -0.04896063554139862,
                0.33840878268431984,
                0.14498772247233482,
                -0.3845005979012184,
                0.03518595085088971,
                -0.20744722229345536,
                0.012588775803242469,
                -0.42983546655683524,
                -0.009488505177183248,
                0.1458658197698116,
                -0.13647435011234432,
                0.16894395863607437,
                -0.024734668303279972,
                0.057375569228157675,
                0.012047668207297746,
                -0.22516630499718382,
                0.40243431965151777,
                0.26036621949532623,
                0.04398248646755021,
                -0.247524728769003,
                -0.10733721553060305,
                0.41770055116983573
            ],
            [
                0.058519970968905044,
                -0.14054834404522754,
                0.270802034842461,
                0.3920828599866849,
                -0.2090137832509732,
                -0.4840270168768763,
                -0.08670459034680966,
                0.09558130421509337,
                -0.08369439651588273,
                0.10222337355984512,
                -0.45806264086256054,
                -0.3057062717590038,
                0.2345808910420476,
                0.03937421297183974,
                0.30478155320450917,
                -0.19878853010197695,
                -0.24765766595222383,
                -0.4089712796632614,
                -0.4742906316389589,
                -0.28212825620950366,
                -0.4822442017840992,
                0.3782386867555957,
                -0.09079186252018034,
                0.4086162583746372,
                -0.1646049209019398,
                0.20680270897916309,
                0.42591901165216317,
                -0.2567511728178331,
                0.026883277897248536,
                -0.41179791961393464,
                -0.2131806965276306,
                -0.3416649567007056,
                0.499117838865778,
                0.25163047325004195,
                -0.2678892101181227,
                0.4902800065455243,
                -0.3250965809401225,
                0.12966008111199023,
                0.45586763112447304,
                -0.008890185659191085,
                0.2989016441264942,
                -0.29949660815985835,
                0.1762234491779664,
                -0.016622683181417797,
                0.2764127178165474,
                -0.14604310885414173,
                0.45419266239883715,
                0.23383154455072153,
                0.20203890245472178,
                -0.439414290550007
            ],
            [
                -0.4825388401805657,
                0.2366485785180802,
                -0.39474181067516456,
                -0.3294326236186186,
                0.41226696883814096,
                -0.3729392242972923,
                0.14228417734167287,
                -0.05659473797663406,
                0.41690419900720455,
                -0.1116134830131732,
                -0.4514021716977197,
                -0.3387113161723134,
                0.2570038373064931,
                -0.03538860324955162,
                -0.0432434047920458,
                -0.46554731144455797,
                -0.19222778304787047,
                0.25003053613311454,
                -0.061072677886708115,
                -0.14604940629550356,
                -0.3130731926532393,
                -0.007644177401878172,
                -0.18482624570787365,
                0.4007717464238749,
                -0.15709166653962103,
                -0.41177223102255356,
                0.47488318189175627,
                -0.3599006528730405,
                0.23286284887068043,
                -0.28348549405584944,
                0.14586983512403362,
                0.03547842888258812,
                -0.4777224485339481,
                0.35838602396988817,
                -0.3044184845580723,
                0.004900282832125291,
                0.1803225678526067,
                -0.036492455723905026,
                0.038822700128876786,
                -0.24221796729910938,
                -0.45207675051900786,
                0.46250675054852197,
                0.08344909671839185,
                -0.4745285445909061,
                -0.19673206180987812,
                0.21598335638266108,
                -0.1491796904831022,
                0.44438088503389095,
                -0.31759636108685474,
                -0.029495863936488065
            ],
            [
                0.022354887196872175,
                -0.3978834838318146,
                0.053328739366899525,
                -0.402604523283582,
                -0.1902833760053494,
                0.21962614483110676,
                0.2656075347880429,
                0.05922182212429117,
                0.441817493307742,
                -0.13955128794658822,
                -0.4440408702527593,
                -0.08471528817406937,
                -0.19893527446652381,
                0.33864956858489503,
                0.2981272239601521,
                -0.10865150711170979,
                -0.4359516078159047,
                -0.07503377332593908,
                -0.45114968637233066,
                0.30069758703198246,
                -0.39123898617155206,
                -0.17645711411475795,
                0.02898307659042698,
                -0.4636921769719349,
                0.26052351030415166,
                -0.13842183283740273,
                0.4106393657090107,
                0.18683867581344415,
                0.4756882026638707,
                -0.10720969425418758,
                -0.47987738760761445,
                -0.3935813166555956,
                0.27543672144197284,
                0.3552533171350686,
                -0.22893501891352663,
                0.20083303120089646,
                -0.3762397280548736,
                -0.3649356496108468,
                -0.0478825966121188,
                -0.14015320478423732,
                -0.19162728151677044,
                -0.029672024002430186,
                -0.06779422042667071,
                0.15178801483152926,
                0.25518945125381676,
                0.30169098572316777,
                0.18719375664870141,
                -0.4556577532608519,
                -0.159530830038638,
                -0.2447190490451575
            ],
            [
                0.08297821817916962,
                -0.28399685371260464,
                0.21905153106659891,
                -0.27721589873472274,
                0.0656908437812247,
                -0.41763051651052185,
                0.44517863930899204,
                0.3423901165041833,
                0.41481268699403373,
                -0.46127949161344084,
                -0.3881504070648414,
                -0.48252668460348214,
                -0.3803790710630848,
                0.4167123643383216,
                0.1621999691737972,
                0.20117552181068554,
                0.1730271895907809,
                -0.46336638878988656,
                0.2980350327025376,
                -0.47388371575440535,
                -0.04618469016698534,
                0.41929000188603993,
                0.19966806564098782,
                -0.41581436803100225,
                -0.43205016844764865,
                0.2153765210054055,
                -0.3724632899998951,
                -0.3593677892975937,
                0.0448590102326103,
                0.456863456765204,
                0.06358736136750787,
                -0.24796357200245944,
                0.34702751418540767,
                -0.09730972978242991,
                -0.4270071599008429,
                0.23436502189729203,
                0.34158299347912047,
                0.342770177199744,
                0.323774658945267,
                -0.28671035186765914,
                0.23752208213314996,
                0.11661132659619444,
                0.18466742144463066,
                0.07704529271154237,
                0.17540316583474191,
                -0.07254667095595324,
                -0.40545837163340037,
                -0.09263598010082819,
                0.19309683016097035,
                -0.08390030038857454
            ],
            [
                0.27673659254707017,
                -0.036805572148859045,
                0.228688857345975,
                0.22311260444472525,
                0.4776161727564858,
                0.23789098225759853,
                0.05633873913417897,
                0.11714468257154242,
                -0.009174879191488627,
                -0.08872051658362745,
                0.24939707775361097,
                0.29615499219549046,
                -0.2546222867001816,
                -0.4385190490407138,
                0.26355811930587913,
                -0.3667525057934048,
                -0.46933448050907334,
                -0.2544120677508773,
                -0.07162652775529754,
                -0.07136779403768168,
                -0.4391455698092742,
                0.1378462063040491,
                0.14047254132105225,
                0.1492815955319713,
                -0.3385373181183474,
                -0.1867281532628361,
                0.4171237232789441,
                0.20433471650850787,
                0.18448772266531455,
                -0.18582928079106298,
                -0.40676338906337084,
                0.48085005550290394,
                0.15421730595753014,
                0.4989022509876758,
                0.15086708882128386,
                -0.0010786184137622223,
                0.038180178251967734,
                0.3505586200190154,
                0.4951631990720615,
                -0.051950771322795575,
                0.15943675807878643,
                0.12488610540339806,
                -0.2499790868603533,
                -0.374951519744705,
                -0.17879078228253786,
                -0.18514016057214955,
                0.2212190713488893,
                0.442698651496934,
                -0.062263450689952426,
                0.3839349330440792
            ],
            [
                0.048439327008007904,
                -0.04552939776883802,
                0.31476054812230614,
                0.19108620558981215,
                0.40949555606957166,
                0.07395089246692321,
                -0.002099878748012207,
                -0.43930094102388384,
                -0.4200516603902139,
                0.15671182502031744,
                -0.08595184843921799,
                -0.2870504903130847,
                -0.3708245579838306,
                -0.24616094127739663,
                -0.3925474347063852,
                0.35525633499207987,
                0.26937315327579114,
                -0.2386109556691678,
                0.4575444232559174,
                -0.08652959657466441,
                0.17829781348074425,
                0.29277755723924603,
                0.21735304310226977,
                0.13199587000109292,
                -0.04085566081950753,
                -0.3781135967967961,
                0.415374238247348,
                -0.4569836973894291,
                -0.3175728850878047,
                0.3932905872921192,
                0.020464599825034235,
                0.3065829355124795,
                -0.36610850134676354,
                0.1675742574382697,
                0.38129207346745153,
                -0.458932115869898,
                0.08721610669020108,
                -0.28387956226799715,
                -0.42078968020896046,
                -0.1472377711975652,
                -0.09628548322468511,
                0.49833759981362236,
                -0.3745818738328536,
                -0.0764873067254942,
                0.1615688034565511,
                0.010799162796443662,
                -0.11418277329858695,
                -0.27237025758569366,
                0.4754704698877268,
                -0.009558281978513605
            ],
            [
                0.1253774567950665,
                -0.21612671862217492,
                -0.05080248819288624,
                0.4083511950321058,
                -0.20636181208325488,
                -0.003981350209475765,
                -0.4675227891697705,
                0.2546011655681075,
                -0.034919140942603066,
                0.3898100441895853,
                -0.18176647086930642,
                0.25169411556864807,
                0.10616929171529277,
                -0.4605380723692243,
                0.11376622585927942,
                -0.4031617655600269,
                -0.1816369644455027,
                -0.11739993519311953,
                -0.43839475630957925,
                -0.1256695224988046,
                -0.06670667282981269,
                0.3089199888378621,
                0.1471492578200857,
                0.36830766042854446,
                0.1322730762579365,
                -0.23824236406484944,
                0.046599584066121635,
                0.02723774765673148,
                -0.43729235716226467,
                -0.2915404149852021,
                -0.25909082204393696,
                -0.1338591975605049,
                0.2045991116043806,
                0.4839493235952407,
                0.17256837732042196,
                -0.3997576526762502,
                -0.35044469455419414,
                -0.44349727642829606,
                -0.11175626023622731,
                0.049484951227431684,
                -0.17471582086244564,
                0.024952906081168846,
                -0.12798252079328343,
                -0.018077773910180395,
                0.0573141235574105,
                0.1776719677725166,
                0.2365236726007538,
                0.3011485034571241,
                -0.12018040327818424,
                -0.15344599156163785
            ],
            [
                -0.3439920112222836,
                -0.15544970855440743,
                -0.46191307341126486,
                0.3323699302491253,
                0.24538055578311613,
                0.09852998949200342,
                0.40508620334741996,
                -0.08343257005739002,
                -0.3587446481246327,
                0.25480926349686084,
                -0.1640521083486589,
                0.37055922761252325,
                -0.446117498894798,
                0.06907155249519514,
                -0.2045387450165963,
                0.14792540529679932,
                0.2365956762122695,
                0.041392726717435435,
                -0.4297022028884413,
                -0.30268381621475315,
                0.008529037784857474,
                0.060502423227558166,
                0.3730638192426846,
                0.4831707550156794,
                -0.33582460682956516,
                0.008266629037381179,
                -0.262571594053878,
                -0.4158535112978352,
                0.18358171915942068,
                0.42474162477954436,
                0.4952230412466887,
                -0.3248239737176254,
                -0.36113757912229916,
                0.14236635200090686,
                0.11694581908950297,
                0.4158788212022464,
                -0.4562680603278272,
                -0.17707832265862156,
                -0.06529774409850009,
                0.36842704040820995,
                -0.3338960330231462,
                0.07088300727735819,
                -0.2205501629509239,
                0.48149484496436257,
                0.3812302329737537,
                0.2922675501714871,
                0.42804531448562644,
                0.02847834198176813,
                0.16081331779206898,
                -0.26289155741389447
            ],
            [
                -0.19786324978218894,
                -0.07820195495242444,
                0.030474231949911834,
                -0.18282469317838546,
                0.2979128612637475,
                -0.16264382770648578,
                0.04032433451697559,
                -0.3682875430769328,
                -0.3394630362651908,
                0.38016293098599696,
                0.08083554338860943,
                -0.27492299288547417,
                -0.06915987599276108,
                -0.23566041617265343,
                0.48651714755492104,
                -0.17826591666663782,
                -0.4494486521428489,
                -0.44132622406647015,
                0.24913472814121485,
                -0.20185759548286275,
                0.23019243930918265,
                0.4723964410603998,
                -0.07233639986758111,
                -0.08706664393726493,
                -0.4230944758589489,
                -0.1677971937397844,
                0.06450062038709525,
                0.2698040821799338,
                0.139943693780734,
                -0.3005212293758359,
                0.04130540387213777,
                -0.2866943365834156,
                0.49152459092899425,
                -0.3104071820739489,
                0.4320736232961002,
                -0.4692367654737317,
                0.0399169443079177,
                -0.06103215590722155,
                0.20382588986359063,
                -0.030497246384351695,
                -0.3298269532764634,
                0.1260356363894476,
                -0.13468464229709176,
                -0.2970602011838067,
                -0.35280988304475847,
                -0.42307359636336583,
                0.49892528404844616,
                0.44519625917116645,
                -0.3418026931885556,
                0.4993423945518304
            ],
            [
                -0.06041419547926352,
                0.15563290891087933,
                -0.12669194475628565,
                0.02711368059926833,
                -0.4410092809691756,
                -0.48950620547856494,
                0.44582008492191494,
                -0.4749614587831926,
                0.13519561136975122,
                -0.40554238537300313,
                0.3800861837599274,
                0.05706909572303531,
                -0.3315086450363435,
                -0.07066143494799237,
                -0.21419577532462275,
                -0.19978841364625455,
                -0.37895961340390205,
                -0.007545272726017016,
                -0.15413043278787808,
                0.16706981514415054,
                -0.07892267221383709,
                0.009609562301879149,
                -0.30420547691089006,
                -0.029591892361569228,
                0.4647178412637254,
                -0.29189377273514394,
                -0.38818670663580845,
                0.2548413384140277,
                -0.08819210206194095,
                0.15665928747864144,
                -0.24422251378612192,
                -0.0006572021986510634,
                0.4758870256936306,
                -0.3607190485415206,
                -0.3454155218037248,
                0.4647796758212174,
                -0.24151943631297912,
                -0.3561136710131436,
                -0.40239822262318903,
                0.3886821434779685,
                -0.14161648742101673,
                0.23811390287930767,
                -0.26646229157584067,
                0.07602240580959196,
                0.007200478667982235,
                -0.1860253894663254,
                -0.2488449794398383,
                -0.04151952068911202,
                0.26755224700641733,
                -0.2878983777043046
            ],
            [
                -0.09169983872371779,
                0.4721299925799589,
                -0.4355114121647322,
                0.3567845518267615,
                0.36597488297790226,
                0.18884377197560842,
                -0.35452567727117323,
                -0.05331499430918263,
                -0.17792892523123915,
                0.4333970179593869,
                -0.1659743670037095,
                -0.24449951098120404,
                0.006704005916117972,
                0.07062280244694852,
                0.19225285502046374,
                -0.1711384819729137,
                0.08335136539348087,
                0.2925617057633172,
                -0.32562240637097095,
                0.3224135243275229,
                -0.2974241927141491,
                -0.41660434485701026,
                -0.43894467040864704,
                -0.1240810271449101,
                -0.2555517343089515,
                -0.4742923147511584,
                -0.28270408154288085,
                0.1159101172881778,
                0.4065997823800709,
                -0.09118622932003373,
                -0.13500934760707328,
                0.44230942278314955,
                0.24845679807294452,
                0.49169102922929186,
                0.3701609210103938,
                -0.022111127745855552,
                -0.1586393354080241,
                -0.4372453443599379,
                0.16604771895330206,
                0.308706194345969,
                -0.46380479155126486,
                -0.19117537654005679,
                -0.08881314932557272,
                0.4979284849652388,
                -0.2585058089371979,
                -0.43108669914874165,
                -0.33545685480197196,
                -0.043737789035721675,
                0.14453337768229768,
                -0.04724054493768837
            ],
            [
                0.28921342176572506,
                0.3304040205332174,
                -0.4163728538755017,
                0.22323722400186774,
                0.08589218063652271,
                -0.38605253235298964,
                -0.3480864176455072,
                -0.47183028718082876,
                -0.42823807397268265,
                0.04705040032109653,
                0.02131383761368333,
                0.4522939079235825,
                -0.35305150097268,
                0.34886473180583943,
                -0.1643596630592411,
                -0.4116042057554782,
                0.34074499945928327,
                -0.008108040369026237,
                0.45724913663963895,
                0.2010695898099626,
                -0.20217035550296525,
                0.108096993389739,
                0.14402935200954425,
                0.468711726250448,
                0.1611455890206589,
                -0.3939520800802325,
                -0.33984181452511397,
                0.16706732984319206,
                -0.4200064297324022,
                0.1499610058157701,
                -0.482984460287866,
                -0.03239910373612365,
                0.07801521078403861,
                0.035227937444257895,
                0.48903795167501407,
                -0.1318577770094218,
                -0.37297651727521286,
                -0.3596554267785518,
                -0.13929778831919504,
                0.10741734031103944,
                -0.025492066899777344,
                0.44261920361551077,
                0.04102048598891539,
                0.020473437819759854,
                -0.44958231674724447,
                0.03230222162701624,
                -0.4885579593783098,
                0.06347753478350238,
                0.375018087194555,
                -0.325020161435959
            ],
            [
                0.2703524751891583,
                -0.09713071139716822,
                0.4976227609525934,
                0.07326906582212889,
                0.06360912373913896,
                0.49021601998191044,
                0.046145745871457144,
                0.49181206494002905,
                0.20805677028317004,
                0.19459308861172953,
                0.45130955953976537,
                0.47202615986246665,
                0.08097386069779089,
                0.49772392113841646,
                0.12806027056404623,
                -0.18701392355105384,
                -0.19553534486467306,
                0.1486248575324547,
                0.2730633674242322,
                0.09501988711301046,
                0.23147945988511998,
                -0.0768344933599967,
                0.2558459361745874,
                0.4266567710467539,
                0.3710101839564238,
                -0.14007231081736526,
                -0.40407121796758594,
                -0.20868670340361284,
                0.05400065325760106,
                -0.05473490330741759,
                -0.3906188839050251,
                0.40160785537839394,
                -0.35903557240917827,
                -0.46445423845322864,
                0.027359793624914364,
                0.30421165746614653,
                -0.31531194168526266,
                0.3997060361266046,
                0.37656424850610715,
                0.27148088039971774,
                -0.18016845780343094,
                0.2542052993533066,
                0.04438565206217826,
                0.4333563273233565,
                0.4094927107794474,
                0.14955056808432776,
                0.4427252686266834,
                0.09789586671757189,
                0.35972527008267563,
                -0.3402510683282537
            ],
            [
                0.280033645786926,
                -0.0667467153033553,
                0.21046515761796314,
                -0.43803244391486407,
                0.4792766327977944,
                0.270578369898254,
                0.15793381170162635,
                0.35952886724002875,
                0.102854132701241,
                0.1463324099304415,
                -0.417615271242448,
                0.10960955243956405,
                -0.31022970430639296,
                0.4034505302208543,
                0.07749357584781358,
                -0.08237626671015386,
                0.3128017819775091,
                -0.32682734569797167,
                -0.17310219653904502,
                -0.03413187553014618,
                -0.31368159992558997,
                0.48845086660150683,
                -0.20681662979094506,
                0.4044655503551172,
                0.22353952173966174,
                -0.1591146986560802,
                -0.30824629640910084,
                0.2768520173607226,
                0.2534232872936144,
                0.12027842313713699,
                -0.17471139961628135,
                0.28518108103576134,
                -0.12721817817640668,
                0.1440640825472066,
                -0.4564639008740049,
                -0.10062359833742862,
                0.45622662929738167,
                0.20930132238776555,
                -0.38868301557564566,
                0.29159338306931604,
                0.13560916748340313,
                -0.06083564203574898,
                0.09339089005079426,
                -0.38942244686599303,
                -0.35704373770969133,
                -0.029225600591989198,
                0.07583459161627648,
                -0.47873281960328296,
                0.32399372430541307,
                -0.3229648676487873
            ],
            [
                0.11567903735357377,
                0.05349909847562817,
                -0.3732765735703175,
                -0.1488011485471108,
                0.3334824468653709,
                0.20451703362745988,
                0.13283698874362404,
                -0.13775870707418292,
                -0.024067320603860298,
                0.41036631225449316,
                -0.05135758086129805,
                -0.3239928718643966,
                0.1665355985249859,
                0.13146236515149956,
                0.1019858945885852,
                -0.0649475666557009,
                -0.4558048968185183,
                -0.229001884648264,
                0.006111107506992175,
                0.05715661418642093,
                -0.09616642821833898,
                0.16725773146605827,
                -0.19910643343508672,
                -0.20707363934833456,
                0.08972997145902273,
                -0.4179952464547032,
                0.04521279128351785,
                0.19562996801501975,
                0.49334761337432675,
                -0.20522328480180607,
                -0.3069648536684537,
                -0.43075878709991744,
                0.13897369426740003,
                0.20596308593927237,
                -0.23223960154102052,
                -0.1041393486264306,
                -0.4291070858410603,
                0.2053049411482316,
                -0.08775765768642874,
                0.3144046491627399,
                -0.45421411636936493,
                -0.1980696191538983,
                0.48781588461900094,
                0.24514721382937543,
                -0.43846481860294184,
                -0.17773811605476253,
                -0.3877851810668106,
                0.22029138069313736,
                0.16810750492959747,
                0.3238832922084103
            ],
            [
                0.08338486214561243,
                -0.18063931617855425,
                -0.08848205546110871,
                0.2798355826599217,
                0.39936713492424447,
                -0.11563133508162968,
                -0.05794652380245767,
                -0.3499766238239085,
                0.40105456775495246,
                -0.1770931243729428,
                0.3210856490728443,
                0.4854161309065088,
                0.2508545047527412,
                0.05810679800127144,
                0.10004783736382454,
                -0.38917001648939453,
                0.31184389234840193,
                -0.3444455328277027,
                0.2180962459989261,
                -0.3116408255971855,
                0.4418118145165812,
                0.047023236284337855,
                0.08438581644116112,
                -0.4325252694155727,
                0.45181158538593685,
                0.08283961931739817,
                0.0691373066314641,
                0.049304431221033576,
                0.061048873494910755,
                -0.28522072942961024,
                -0.1371103993308663,
                -0.06476786615604287,
                0.4208450836017507,
                0.2977870610857687,
                -0.24203035986830632,
                0.22568733836305876,
                -0.3103930516442373,
                0.03833019149013343,
                -0.28892507630132264,
                0.05141792772413667,
                -0.22291934752535753,
                0.18887755405796472,
                0.40873899072435316,
                -0.20321500797340838,
                0.2502132923927104,
                -0.044762538918051785,
                -0.44407046829149593,
                0.040394923714508986,
                0.35777772194443813,
                0.18631862482971095
            ],
            [
                -0.2530137459176394,
                0.45756186415865213,
                0.3948525127243375,
                0.3419215674892226,
                -0.2953737749517512,
                -0.4518361957883603,
                -0.14796820625093046,
                -0.3728838169352485,
                -0.4750606838670274,
                -0.2737304827244898,
                0.26093261149979463,
                0.23410271290957027,
                -0.3628423350469228,
                -0.2369856245161298,
                0.1434736933125925,
                -0.14476440457107806,
                -0.4484775083381834,
                -0.3968042833410979,
                0.08455711156775571,
                -0.22409374768445783,
                0.32809575541186503,
                0.4031539297862929,
                0.3655760874764067,
                0.16854916545185117,
                -0.37285936316311225,
                -0.28771351254743543,
                -0.1895410065433777,
                0.45475182219949106,
                -0.2737648275269399,
                0.10730188911881158,
                0.2715325958901363,
                -0.19132934934857596,
                0.4189003594687855,
                0.1709539292555788,
                -0.19097072687669067,
                -0.45774362748026876,
                -0.07012257761895511,
                0.24352198728548674,
                -0.14006614365267953,
                0.3600808579135118,
                -0.13661354169672232,
                -0.5191206260543562,
                0.5439770435793092,
                -0.26487435547486987,
                0.24133824103559584,
                -0.12240043535089444,
                -0.015879609777121176,
                -0.1881724360042884,
                -0.22774079010910767,
                0.1987547841385787
            ],
            [
                0.37495238876735,
                0.3785923226621624,
                -0.0029143671713566413,
                -0.42465197897174733,
                0.37520435718051,
                -0.045429753126829835,
                0.3088935382598818,
                0.09910161163059462,
                -0.30200055000723364,
                -0.18223907225665434,
                -0.27079117624716614,
                0.12621094597485213,
                -0.0014987737514036922,
                -0.1026851112015265,
                0.26586217815670077,
                0.5163279975712123,
                0.42416044758015614,
                0.4900225594689126,
                0.3118513508392604,
                -0.021786646086639338,
                -0.015498900646291077,
                0.12404412521943567,
                0.04924873143455724,
                -0.4388243453351451,
                0.30567589257682465,
                -0.22889439146324167,
                0.47724957522583933,
                0.46298787873692404,
                0.0005017158842577865,
                0.14190646441035631,
                -0.020389553623233133,
                0.31285854019756787,
                0.32010727376113496,
                -0.13556847373878878,
                -0.4302608542754901,
                -0.15451729934880148,
                0.2003905229126347,
                0.3955151729066658,
                0.16336757405391578,
                -0.2632785143615129,
                0.2339161849925018,
                0.012258100424787631,
                0.0459658469264091,
                -0.1130926804925131,
                0.4149214109890431,
                -0.19295319822269733,
                -0.6036257912713673,
                -0.2925823691837955,
                -0.09940781374425246,
                -0.17918064888200538
            ],
            [
                -0.06661555208406662,
                0.12165703826479315,
                0.46000695934846364,
                -0.28671233357988996,
                0.49019018731297404,
                -0.065600465579149,
                0.24777479758485882,
                -0.3391141413927306,
                -0.4727293311531421,
                -0.33972221563674526,
                -0.08022720433280285,
                -0.35748236100447545,
                0.38315603213972943,
                0.3268296709067188,
                0.47314758261460504,
                0.029864143655936114,
                0.5062200858426384,
                -0.13008132428372338,
                -0.08806477818197768,
                0.1354812414644196,
                -0.4035419862004236,
                0.25277045422114564,
                0.2996395792699392,
                -0.4840701225535232,
                -0.2625338346944339,
                -0.44726790053131227,
                0.08175715274684302,
                -0.08923715152693439,
                0.35098764714248887,
                0.13364653092682977,
                0.1658608345987668,
                0.16251065802919756,
                0.11894324883829396,
                -0.46937961772911,
                -0.27187433683321455,
                0.3279534044399321,
                0.07590380749475763,
                -0.10544406669782477,
                -0.28099012072073737,
                -0.10400123726740741,
                -0.1508154064533223,
                -0.2880293819818049,
                -0.01716624041598305,
                0.21599023044194945,
                0.09440971425612275,
                -0.04208910147928993,
                -0.14266869085429856,
                0.02889847306514909,
                0.4734890454861817,
                0.24646093609579567
            ],
            [
                -0.3234543104208732,
                -0.35079912720507067,
                -0.14938830295192926,
                -0.29427455778306205,
                0.17082256988659875,
                0.07319550726743355,
                -0.08539644425658244,
                0.2626717935452806,
                -0.13651587914423077,
                0.032403585466576325,
                -0.41558488074113353,
                -0.38138286506118985,
                0.5166437788102819,
                0.4735058448958636,
                0.2704154204356845,
                0.44538228881832387,
                0.12851880519119782,
                -0.15493350956511331,
                -0.11966089480531263,
                0.031525388684796804,
                0.30216869932221935,
                -0.3163533699517715,
                0.4563936990689987,
                0.16345426988336997,
                0.10173986402484028,
                -0.4867935972731472,
                0.17588630264622304,
                0.35342019891294546,
                -0.23981508862696824,
                -0.3460951709510785,
                -0.4994730471951513,
                0.395473955217401,
                -0.29795970110545794,
                0.10349670655221442,
                0.11167938017678124,
                -0.4566679132000954,
                -0.07380042762176343,
                -0.37993238517364075,
                -0.00955232168598457,
                -0.054296270472255055,
                0.056300282342797325,
                -0.22527638518495133,
                -0.029545810366355035,
                0.3313644290563531,
                -0.08206924396589141,
                0.2837587483114872,
                -0.3125266079065874,
                -0.0454827921146156,
                0.1146704232488494,
                0.1584608747917366
            ],
            [
                -0.5642860791791265,
                0.05794582571543458,
                0.1014569600395517,
                -0.288949535340776,
                -0.41023315945043015,
                0.09230122150959424,
                0.0931993756020891,
                -0.24500890225569194,
                0.42989428258358975,
                -0.23064374527358142,
                -0.4282402742208883,
                0.3458344015988285,
                0.12514343731941252,
                -0.1876477579667016,
                -0.013623366639733672,
                0.14600968685519183,
                0.4105935162643487,
                0.5376089193612302,
                -0.48100017588514304,
                -0.05056112537972165,
                -0.4380936767396607,
                -0.057680404339029226,
                -0.2213761253236539,
                0.12049885872614775,
                -0.5052273669966896,
                0.31444725965147996,
                -0.11057037493189625,
                0.07621739955574969,
                -0.02226296729659303,
                -0.04792799545551578,
                -0.03785334657979945,
                0.3727823437416712,
                0.38510434584428643,
                -0.25449658414427195,
                0.34715172578335335,
                0.20641705406491836,
                -0.24462455024915736,
                -0.16979949971888408,
                -0.1798326876825122,
                -0.2002614043466299,
                -0.601476029965909,
                -0.0993334657062633,
                -0.33018929587765516,
                -0.02445896311624617,
                -0.19114680218148214,
                -0.051901251359362396,
                -0.0018603578284444966,
                -0.41697727647655,
                -0.17514394599505018,
                -0.17862372580097044
            ],
            [
                -0.06353103968477784,
                0.05289603935491316,
                -0.16907304030315348,
                -0.4565793816177739,
                0.1650545300314431,
                0.007869431733545847,
                -0.14276235558640185,
                0.3699698281690171,
                0.14829134437814112,
                0.2303782215759667,
                0.1966439265700238,
                0.4405774035341139,
                -0.2932952326373463,
                0.35345817146098424,
                0.15337066808590313,
                0.6175815389985145,
                -0.23306564031051552,
                0.560566710011806,
                -0.48123979396988714,
                -0.5051984079400954,
                -0.46202282722942856,
                0.4423121302202697,
                -0.22655658793674496,
                0.1773517724581534,
                -0.3574273608149339,
                -0.21446924790146796,
                0.36806139678225774,
                -0.19252066193696227,
                0.26057921306833337,
                0.014490898290229723,
                -0.3635687794619688,
                0.20726229227559967,
                -0.3330573744194017,
                0.39541849838428,
                0.12192270552409996,
                -0.20379706526970304,
                -0.5011575625143384,
                0.4456516245114564,
                0.05180227339004294,
                -0.4693449038515795,
                -0.20371735318459455,
                -0.5083416860624992,
                -0.4642901203101269,
                0.187712929345996,
                -0.4532327758437609,
                -0.05665205178517591,
                -0.5749558281837054,
                -0.11454252419202715,
                -0.47908078932277687,
                -0.0878302658314546
            ],
            [
                0.40417960558508326,
                0.06441068688661859,
                0.4475792439237766,
                -0.5206630570163334,
                0.3381004064985299,
                0.37836200154718624,
                -0.21038821182436346,
                -0.08166521163238642,
                -0.08802880784162642,
                0.14313016841303786,
                -0.3227307118631883,
                -0.27005419924127544,
                0.27215685662522715,
                -0.15879738534238821,
                0.3540777565920473,
                -0.3477085512376282,
                -0.4256393751431778,
                0.11898494103529364,
                -0.4557611635687706,
                -0.12929364462989568,
                -0.3110962824623388,
                -0.17178638518980227,
                -0.14501886961894297,
                0.3685284780907387,
                -0.4514350810942016,
                -0.1304331317100436,
                -0.00449714638155354,
                -0.17084641031428355,
                -0.08381390599285149,
                -0.38802213452740286,
                0.4291740736064115,
                -0.1921589406705759,
                0.07022908967397466,
                0.5340161034622533,
                0.26631373190924634,
                -0.3904053501541559,
                -0.11447123846613357,
                0.46279444798152164,
                -0.06260183535747296,
                0.3400615823996389,
                -0.5124514376311639,
                0.2924882282826312,
                0.4448177980389807,
                0.49253633326856416,
                -0.1749174339667059,
                -0.35029763794441854,
                0.40106727264268993,
                0.13254103512992424,
                0.4316501189464812,
                0.1426281253256551
            ],
            [
                -0.17597797953008376,
                -0.03923847054027829,
                0.42677287188467233,
                0.3397109779283244,
                -0.20484496116672665,
                -0.1829573280137715,
                -0.20323743365747327,
                0.10307492502320507,
                -0.11743877833716983,
                -0.3671244099129369,
                -0.2615195354849971,
                -0.07385257579576024,
                0.08167441262692261,
                -0.29592122337789317,
                0.14795306470375602,
                0.5416777379136017,
                0.15070432426082223,
                0.22598600929283877,
                0.23329596380741713,
                0.46460087355621427,
                -0.45251443410817904,
                -0.23837485129244196,
                -0.025366794878886434,
                0.17820414125873965,
                0.4621289328147925,
                -0.09944698929125606,
                -0.28939341089977155,
                0.08297814378841745,
                -0.3937096118986818,
                0.4150087669684134,
                0.24443394803953244,
                -0.16447273309882993,
                0.41183176253336623,
                -0.11511748583847962,
                -0.03340142784192505,
                -0.40708456458996195,
                0.3156520295134479,
                -0.39088278923956815,
                -0.40402773640966044,
                0.2902642182068955,
                0.36275557407553216,
                0.3156174963390576,
                -0.4550265553544713,
                -0.25053071478752903,
                -0.08750113783574093,
                -0.4093783617612344,
                -0.1216047687129767,
                0.21339450247594866,
                -0.4702988103579857,
                -0.337184357044782
            ],
            [
                -0.07692039300777356,
                0.15337211425330002,
                -0.43831324798143073,
                0.03179002158335687,
                0.2765759012932788,
                0.23215898480001593,
                0.18957380010952002,
                0.21738370841930393,
                -0.0008922925436119159,
                -0.011659549118177773,
                0.2751091729188466,
                0.4450435487618018,
                -0.42448809776792645,
                -0.4838162573795009,
                -0.42608844122997974,
                -0.1804546938976826,
                0.01717647262443993,
                -0.1022606027737381,
                0.23906273495290742,
                0.393614301113196,
                -0.27026386056288115,
                -0.134206847414486,
                0.20272081579494972,
                -0.2627330895084981,
                -0.038255407306315416,
                0.24930117077766162,
                0.23691077236927802,
                -0.46158168202635846,
                -0.2883158031051457,
                -0.37658042846470274,
                -0.5003202223067603,
                -0.2329863035941708,
                0.3231176522768737,
                -0.3222574158337434,
                -0.2601800986307518,
                -0.3678896305441667,
                0.14919133477849428,
                -0.41094777691395595,
                0.2971128294316224,
                -0.07352784896978216,
                -0.466121924294406,
                0.16266484328001843,
                0.43885207794057657,
                0.14282982226541485,
                -0.44476674978585545,
                -0.19145748896788575,
                -0.34967879699873516,
                0.2564964828465764,
                0.018289468761121447,
                -0.051852031637859904
            ],
            [
                0.02275559243184632,
                0.09856992102638071,
                0.34589514909257657,
                0.2855974943908325,
                0.4763259470777734,
                -0.33230184390493395,
                -0.08612897612443807,
                -0.4494696429615379,
                0.31174876867864737,
                -0.4812810729367817,
                -0.4176433424719013,
                0.40121391119486555,
                -0.1742235364475541,
                -0.11999590802137731,
                0.4370520866053719,
                0.6412610829628393,
                -0.5044173486494095,
                -0.4024279831923924,
                -0.358483698452065,
                -0.1047658560560038,
                -0.37427726912196113,
                0.2274517531971523,
                -0.1022766094426531,
                -0.4573687753939364,
                -0.044908738686243524,
                0.24395508448652914,
                -0.3563127552086695,
                -0.05663894141234218,
                -0.4237810117819732,
                -0.04361406498427925,
                0.31731706292690615,
                -0.4694029608727658,
                0.2150077329975585,
                0.043684618202977844,
                -0.37700850323803986,
                -0.1351949376942802,
                -0.05680807509045515,
                0.20359989924298805,
                0.39090624578306615,
                -0.4193540176420971,
                -0.03272448043640031,
                0.22476450674724804,
                0.006512165797995704,
                -0.12275102994763623,
                -0.3988204929065636,
                -0.1640545506075269,
                0.3837507775723374,
                0.4417886476433766,
                -0.1960049608143378,
                -0.008131693091250353
            ],
            [
                0.04351472108272995,
                -0.18573828094273373,
                0.03082942141028882,
                0.027392204944214127,
                -0.37341287433031173,
                0.14329684135006848,
                -0.42586594783180753,
                -0.2699456212568226,
                0.5115479157544122,
                -0.19264166035033922,
                -0.32926719354104694,
                0.2981360678739999,
                -0.018034562986857027,
                0.4648873645868301,
                0.4561024958107734,
                0.39264462755491775,
                -0.3618264963259721,
                0.30132116081771565,
                -0.47305780680291254,
                -0.38923457509789067,
                -0.036729079985449706,
                0.2599900695748578,
                0.4298492366926736,
                -0.3617842616416162,
                -0.19092789255599554,
                -0.4806064196385154,
                0.07484388789305232,
                -0.33087627634795985,
                -0.07459208850929562,
                0.4204475017938574,
                -0.37983228092606286,
                0.21723814633287267,
                0.4473354664564825,
                0.20565098835537554,
                -0.18106955910865108,
                -0.023856641603105647,
                0.4115523655276059,
                0.14337600529436453,
                0.11680445144900728,
                0.4965266479934791,
                -0.4275976844776299,
                -0.26480312953406043,
                -0.39628407436004687,
                -0.19487931760213578,
                -0.35316429362681695,
                0.2611673869946886,
                -0.5046602836520706,
                -0.3239433724523313,
                0.27072771714716604,
                0.14885961685665106
            ],
            [
                0.20264464725694065,
                0.5099846233953644,
                -0.3497469883789012,
                -0.4051964939046777,
                0.009605020894647629,
                -0.2108916555932864,
                0.3024251192294352,
                -0.16774880229948616,
                -0.15075037561425475,
                0.17421564461836764,
                0.09053103009316647,
                -0.056575386338708324,
                -0.05849988356806496,
                -0.046833104227737496,
                0.2003190691885133,
                0.22833820033269336,
                0.10894169193418023,
                0.48323010021220036,
                0.2166863354090254,
                0.08172178967474947,
                0.41159023633968633,
                0.19998734439495178,
                -0.09928446076302258,
                -0.296937313879355,
                0.07168140382563308,
                0.18967629609389125,
                0.25978272365309213,
                0.1267336776047941,
                -0.20402255447176754,
                0.37597806251442023,
                0.2678851865815161,
                0.35250643286838795,
                -0.2668343028020051,
                0.449970819188448,
                -0.3175033979410141,
                0.41962218949968333,
                -0.05251281444336148,
                -0.24842828287362792,
                -0.17192803926605624,
                0.11748866606345536,
                0.20237446529964254,
                -0.429567035319489,
                0.3258490404797001,
                0.4528875284628217,
                -0.45098781456217085,
                -0.4731529660757832,
                -0.5160321875885389,
                -0.14758789233572722,
                0.22100784656781183,
                -0.30004054865348895
            ],
            [
                -0.44436280568183056,
                -0.3644410335102763,
                -0.11081732374272968,
                0.19702525270776186,
                0.5000111888767922,
                0.42788376311290693,
                0.42089888748828597,
                -0.2681643457621498,
                0.019783899114838036,
                0.1712397457722466,
                0.2280274872640817,
                0.28443254407791957,
                -0.46595229310772496,
                0.047605123396275956,
                -0.36576057275128304,
                -0.014897599250333904,
                0.017183538882036834,
                -0.04320294379491841,
                0.02558043344015388,
                0.2645341816318407,
                -0.27926026440222584,
                0.348818218527614,
                -0.05669226494239076,
                -0.06561921681509328,
                0.10630092999959036,
                -0.11272841293827163,
                -0.10705011303429442,
                0.44407943796042654,
                -0.4100409001839907,
                -0.4720650241817971,
                0.14078087279592386,
                -0.46325292975924565,
                0.4582740855730316,
                0.21644681453612452,
                -0.017906690595121427,
                0.18059541277375374,
                -0.2270036306216328,
                0.4564083479314308,
                -0.4896873067005769,
                0.2496644527286208,
                -0.4042313641888363,
                -0.42599060332336375,
                -0.09023406103455965,
                0.4681473630560929,
                -0.47972494148807715,
                0.23902914048430307,
                0.08185182485226229,
                0.2007719347531575,
                0.1477885599599666,
                -0.43572985899009126
            ],
            [
                0.009610218209089952,
                0.24307290984434793,
                0.26075802329189673,
                0.16516794483641917,
                0.28462143102896836,
                -0.25942365671027057,
                -0.26638499200391247,
                0.15256502744803754,
                0.15914850238162814,
                0.07979151896018276,
                -0.48381565209436156,
                0.009126264132476747,
                0.39968723503836057,
                -0.34940009760356777,
                -0.2636623664071848,
                -0.35968373491716893,
                -0.05748400610208632,
                0.3931679104799083,
                -0.15917257812428803,
                0.4547012888103297,
                -0.2609718080724225,
                -0.29943848127829387,
                -0.085303351424093,
                0.3770256447948896,
                -0.40008812306441593,
                -0.3645652889247539,
                0.2177079484767791,
                0.45110884115109845,
                -0.26504944630691646,
                -0.36338551007253406,
                -0.3087699774557841,
                0.1864878533993615,
                0.2843788454414816,
                0.35794334678916984,
                -0.31664846517054396,
                -0.2157008439631188,
                -0.4941041228776302,
                -0.11110937209851048,
                -0.06111632585826648,
                0.10965304401896059,
                -0.13449104635128037,
                -0.19000236497330317,
                -0.3695744819430867,
                0.20263175007066966,
                0.14885744760049877,
                0.31671131796906876,
                0.2660724786226727,
                -0.07636913186190031,
                -0.4695735917948474,
                -0.3622224823282891
            ],
            [
                -0.37854308464622294,
                -0.18931495327150064,
                0.43149617212953534,
                0.40878977988856025,
                -0.18111425173455684,
                0.16042154704621042,
                0.29010604996122913,
                -0.4522904927021789,
                -0.4371108775789945,
                0.2416148303763425,
                0.3049856666619144,
                -0.35214007757260846,
                0.027371439660885566,
                -0.13761320741682642,
                -0.23918723017849575,
                -0.39758475280396655,
                -0.1379093924080153,
                0.22324028328294696,
                0.3416402381745593,
                0.05114149543727265,
                -0.11198944690187684,
                -0.45696110583737815,
                0.4759388149275073,
                0.40833848554822566,
                0.3910128488067149,
                -0.2141711470931811,
                0.2461628345350322,
                0.3678836640330584,
                -0.3285187957282005,
                -0.26071516035626063,
                0.25327876315337094,
                -0.20250978282889565,
                -0.3123739099909533,
                -0.1586357441508611,
                -0.16948786833066407,
                0.49770493412694256,
                -0.3099008463085391,
                -0.39922338602647867,
                -0.1788408984717742,
                0.4527740927595177,
                0.04128472876370726,
                0.15258276897688344,
                -0.4240181056996057,
                0.2980558636259224,
                -0.07836527521641524,
                -0.15155452100533526,
                0.07506390273341484,
                -0.2014836758872921,
                -0.480290424496101,
                -0.014908517790009972
            ],
            [
                -0.180611847206805,
                -0.08914164726858415,
                0.26456991426947013,
                -0.11766108176663939,
                0.11433910155886441,
                -0.18183876286632666,
                -0.4637489015229986,
                0.16657971563360507,
                -0.20859589268146606,
                0.07709342878286023,
                -0.04156770435865113,
                0.49061812757449996,
                -0.47917491380920313,
                0.2283942313242094,
                -0.09789785029333181,
                -0.33535788250627546,
                0.08435188567016072,
                0.4026392821640863,
                -0.2596277484245538,
                0.4466193606297518,
                0.29694244074141346,
                -0.25241252189467905,
                -0.355385780405612,
                -0.060629775322670755,
                0.445622700937552,
                -0.05374641042672571,
